<?xml version="1.0"?>
<opencv_storage>
<!-- Automatically converted from temp, window size = 32x32 -->
<Aim8A001 type_id="opencv-haar-classifier">
  <size>
    32 32</size>
  <stages>
    <_>
      <!-- stage 0 -->
      <trees>
        <_>
          <!-- tree 0 -->
          <_>
            <!-- root node -->
            <feature>
              <rects>
                <_>
                  3 6 26 6 -1.</_>
                <_>
                  3 9 26 3 2.</_></rects>
              <tilted>0</tilted></feature>
            <threshold>0.0374750308692455</threshold>
            <left_val>-0.7799695730209351</left_val>
            <right_val>0.7897689938545227</right_val></_></_>
        <_>
          <!-- tree 1 -->
          <_>
            <!-- root node -->
            <feature>
              <rects>
                <_>
                  7 1 18 9 -1.</_>
                <_>
                  13 1 6 9 3.</_></rects>
              <tilted>0</tilted></feature>
            <threshold>0.0277753192931414</threshold>
            <left_val>-0.7515888810157776</left_val>
            <right_val>0.7511454224586487</right_val></_></_>
        <_>
          <!-- tree 2 -->
          <_>
            <!-- root node -->
            <feature>
              <rects>
                <_>
                  3 7 26 12 -1.</_>
                <_>
                  3 11 26 4 3.</_></rects>
              <tilted>0</tilted></feature>
            <threshold>0.0482344403862953</threshold>
            <left_val>-0.6500359773635864</left_val>
            <right_val>0.5387691855430603</right_val></_></_></trees>
      <stage_threshold>-0.9927893280982971</stage_threshold>
      <parent>-1</parent>
      <next>-1</next></_>
    <_>
      <!-- stage 1 -->
      <trees>
        <_>
          <!-- tree 0 -->
          <_>
            <!-- root node -->
            <feature>
              <rects>
                <_>
                  4 0 23 12 -1.</_>
                <_>
                  4 4 23 4 3.</_></rects>
              <tilted>0</tilted></feature>
            <threshold>-0.0649016126990318</threshold>
            <left_val>0.6218997836112976</left_val>
            <right_val>-0.7340782284736633</right_val></_></_>
        <_>
          <!-- tree 1 -->
          <_>
            <!-- root node -->
            <feature>
              <rects>
                <_>
                  7 1 18 9 -1.</_>
                <_>
                  13 1 6 9 3.</_></rects>
              <tilted>0</tilted></feature>
            <threshold>0.0423915795981884</threshold>
            <left_val>-0.7303947210311890</left_val>
            <right_val>0.6550977826118469</right_val></_></_>
        <_>
          <!-- tree 2 -->
          <_>
            <!-- root node -->
            <feature>
              <rects>
                <_>
                  2 4 28 21 -1.</_>
                <_>
                  2 11 28 7 3.</_></rects>
              <tilted>0</tilted></feature>
            <threshold>0.1318348050117493</threshold>
            <left_val>-0.8094320297241211</left_val>
            <right_val>0.4658535122871399</right_val></_></_>
        <_>
          <!-- tree 3 -->
          <_>
            <!-- root node -->
            <feature>
              <rects>
                <_>
                  1 31 30 1 -1.</_>
                <_>
                  11 31 10 1 3.</_></rects>
              <tilted>0</tilted></feature>
            <threshold>0.0152292000129819</threshold>
            <left_val>-0.3955824971199036</left_val>
            <right_val>0.7368754148483276</right_val></_></_></trees>
      <stage_threshold>-1.3135089874267578</stage_threshold>
      <parent>0</parent>
      <next>-1</next></_>
    <_>
      <!-- stage 2 -->
      <trees>
        <_>
          <!-- tree 0 -->
          <_>
            <!-- root node -->
            <feature>
              <rects>
                <_>
                  2 5 27 15 -1.</_>
                <_>
                  2 10 27 5 3.</_></rects>
              <tilted>0</tilted></feature>
            <threshold>0.1009915024042130</threshold>
            <left_val>-0.8228139877319336</left_val>
            <right_val>0.5756028294563294</right_val></_></_>
        <_>
          <!-- tree 1 -->
          <_>
            <!-- root node -->
            <feature>
              <rects>
                <_>
                  15 4 4 7 -1.</_>
                <_>
                  15 4 2 7 2.</_></rects>
              <tilted>0</tilted></feature>
            <threshold>5.4028420709073544e-003</threshold>
            <left_val>-0.2421234995126724</left_val>
            <right_val>0.4366249144077301</right_val></_></_>
        <_>
          <!-- tree 2 -->
          <_>
            <!-- root node -->
            <feature>
              <rects>
                <_>
                  12 4 6 6 -1.</_>
                <_>
                  15 4 3 6 2.</_></rects>
              <tilted>0</tilted></feature>
            <threshold>7.4760261923074722e-003</threshold>
            <left_val>-0.5540636181831360</left_val>
            <right_val>0.6498649716377258</right_val></_></_>
        <_>
          <!-- tree 3 -->
          <_>
            <!-- root node -->
            <feature>
              <rects>
                <_>
                  0 12 32 20 -1.</_>
                <_>
                  0 22 32 10 2.</_></rects>
              <tilted>0</tilted></feature>
            <threshold>-0.0556333288550377</threshold>
            <left_val>0.4331834912300110</left_val>
            <right_val>-0.7258685231208801</right_val></_></_>
        <_>
          <!-- tree 4 -->
          <_>
            <!-- root node -->
            <feature>
              <rects>
                <_>
                  1 13 12 5 -1.</_>
                <_>
                  5 13 4 5 3.</_></rects>
              <tilted>0</tilted></feature>
            <threshold>7.9212365671992302e-003</threshold>
            <left_val>-0.4670087993144989</left_val>
            <right_val>0.4944981038570404</right_val></_></_></trees>
      <stage_threshold>-1.1716229915618896</stage_threshold>
      <parent>1</parent>
      <next>-1</next></_>
    <_>
      <!-- stage 3 -->
      <trees>
        <_>
          <!-- tree 0 -->
          <_>
            <!-- root node -->
            <feature>
              <rects>
                <_>
                  2 5 28 10 -1.</_>
                <_>
                  2 10 28 5 2.</_></rects>
              <tilted>0</tilted></feature>
            <threshold>0.0652101114392281</threshold>
            <left_val>-0.8711572289466858</left_val>
            <right_val>0.3597125113010407</right_val></_></_>
        <_>
          <!-- tree 1 -->
          <_>
            <!-- root node -->
            <feature>
              <rects>
                <_>
                  16 0 16 1 -1.</_>
                <_>
                  16 0 8 1 2.</_></rects>
              <tilted>0</tilted></feature>
            <threshold>4.5991651713848114e-003</threshold>
            <left_val>-0.3972418904304504</left_val>
            <right_val>0.3803156912326813</right_val></_></_>
        <_>
          <!-- tree 2 -->
          <_>
            <!-- root node -->
            <feature>
              <rects>
                <_>
                  8 0 10 12 -1.</_>
                <_>
                  13 0 5 12 2.</_></rects>
              <tilted>0</tilted></feature>
            <threshold>0.0218435693532228</threshold>
            <left_val>-0.6650543212890625</left_val>
            <right_val>0.4491089880466461</right_val></_></_>
        <_>
          <!-- tree 3 -->
          <_>
            <!-- root node -->
            <feature>
              <rects>
                <_>
                  10 29 22 3 -1.</_>
                <_>
                  10 29 11 3 2.</_></rects>
              <tilted>0</tilted></feature>
            <threshold>0.0274271406233311</threshold>
            <left_val>-0.1932097971439362</left_val>
            <right_val>0.4304682910442352</right_val></_></_>
        <_>
          <!-- tree 4 -->
          <_>
            <!-- root node -->
            <feature>
              <rects>
                <_>
                  0 28 26 4 -1.</_>
                <_>
                  13 28 13 4 2.</_></rects>
              <tilted>0</tilted></feature>
            <threshold>0.0385717488825321</threshold>
            <left_val>-0.4133285880088806</left_val>
            <right_val>0.6068807840347290</right_val></_></_>
        <_>
          <!-- tree 5 -->
          <_>
            <!-- root node -->
            <feature>
              <rects>
                <_>
                  10 0 12 4 -1.</_>
                <_>
                  10 2 12 2 2.</_></rects>
              <tilted>0</tilted></feature>
            <threshold>-7.6592089608311653e-003</threshold>
            <left_val>0.5333039760589600</left_val>
            <right_val>-0.4295735061168671</right_val></_></_></trees>
      <stage_threshold>-1.1150180101394653</stage_threshold>
      <parent>2</parent>
      <next>-1</next></_>
    <_>
      <!-- stage 4 -->
      <trees>
        <_>
          <!-- tree 0 -->
          <_>
            <!-- root node -->
            <feature>
              <rects>
                <_>
                  0 4 31 18 -1.</_>
                <_>
                  0 10 31 6 3.</_></rects>
              <tilted>0</tilted></feature>
            <threshold>0.1160193011164665</threshold>
            <left_val>-0.9148514866828919</left_val>
            <right_val>0.5307723879814148</right_val></_></_>
        <_>
          <!-- tree 1 -->
          <_>
            <!-- root node -->
            <feature>
              <rects>
                <_>
                  18 0 14 1 -1.</_>
                <_>
                  18 0 7 1 2.</_></rects>
              <tilted>0</tilted></feature>
            <threshold>7.3619588511064649e-004</threshold>
            <left_val>-0.7533538937568665</left_val>
            <right_val>0.2417362034320831</right_val></_></_>
        <_>
          <!-- tree 2 -->
          <_>
            <!-- root node -->
            <feature>
              <rects>
                <_>
                  7 5 12 4 -1.</_>
                <_>
                  13 5 6 4 2.</_></rects>
              <tilted>0</tilted></feature>
            <threshold>8.5278637707233429e-003</threshold>
            <left_val>-0.8922777771949768</left_val>
            <right_val>0.3933180868625641</right_val></_></_>
        <_>
          <!-- tree 3 -->
          <_>
            <!-- root node -->
            <feature>
              <rects>
                <_>
                  4 4 24 14 -1.</_>
                <_>
                  4 11 24 7 2.</_></rects>
              <tilted>0</tilted></feature>
            <threshold>0.0243767797946930</threshold>
            <left_val>-0.9821252822875977</left_val>
            <right_val>0.2645039856433868</right_val></_></_>
        <_>
          <!-- tree 4 -->
          <_>
            <!-- root node -->
            <feature>
              <rects>
                <_>
                  0 0 14 1 -1.</_>
                <_>
                  7 0 7 1 2.</_></rects>
              <tilted>0</tilted></feature>
            <threshold>6.2526698457077146e-004</threshold>
            <left_val>-0.9297677874565125</left_val>
            <right_val>0.2873663902282715</right_val></_></_>
        <_>
          <!-- tree 5 -->
          <_>
            <!-- root node -->
            <feature>
              <rects>
                <_>
                  16 23 14 8 -1.</_>
                <_>
                  23 23 7 4 2.</_>
                <_>
                  16 27 7 4 2.</_></rects>
              <tilted>0</tilted></feature>
            <threshold>2.3460360243916512e-003</threshold>
            <left_val>-0.9184622764587402</left_val>
            <right_val>0.3027201890945435</right_val></_></_>
        <_>
          <!-- tree 6 -->
          <_>
            <!-- root node -->
            <feature>
              <rects>
                <_>
                  4 11 14 14 -1.</_>
                <_>
                  4 18 14 7 2.</_></rects>
              <tilted>0</tilted></feature>
            <threshold>-2.7569190133363008e-003</threshold>
            <left_val>0.3310039937496185</left_val>
            <right_val>-0.9876267910003662</right_val></_></_>
        <_>
          <!-- tree 7 -->
          <_>
            <!-- root node -->
            <feature>
              <rects>
                <_>
                  9 0 14 12 -1.</_>
                <_>
                  9 4 14 4 3.</_></rects>
              <tilted>0</tilted></feature>
            <threshold>-6.8889488466084003e-003</threshold>
            <left_val>0.2117594927549362</left_val>
            <right_val>-0.9571620821952820</right_val></_></_>
        <_>
          <!-- tree 8 -->
          <_>
            <!-- root node -->
            <feature>
              <rects>
                <_>
                  0 14 12 2 -1.</_>
                <_>
                  4 14 4 2 3.</_></rects>
              <tilted>0</tilted></feature>
            <threshold>1.2410839553922415e-003</threshold>
            <left_val>-0.7902538776397705</left_val>
            <right_val>0.3869352042675018</right_val></_></_>
        <_>
          <!-- tree 9 -->
          <_>
            <!-- root node -->
            <feature>
              <rects>
                <_>
                  2 2 30 30 -1.</_>
                <_>
                  2 12 30 10 3.</_></rects>
              <tilted>0</tilted></feature>
            <threshold>7.0241037756204605e-003</threshold>
            <left_val>-0.9584463834762573</left_val>
            <right_val>0.1755905002355576</right_val></_></_>
        <_>
          <!-- tree 10 -->
          <_>
            <!-- root node -->
            <feature>
              <rects>
                <_>
                  12 9 8 12 -1.</_>
                <_>
                  12 15 8 6 2.</_></rects>
              <tilted>0</tilted></feature>
            <threshold>-2.2389499936252832e-003</threshold>
            <left_val>0.1474740952253342</left_val>
            <right_val>-0.9298989176750183</right_val></_></_>
        <_>
          <!-- tree 11 -->
          <_>
            <!-- root node -->
            <feature>
              <rects>
                <_>
                  23 2 8 30 -1.</_>
                <_>
                  27 2 4 15 2.</_>
                <_>
                  23 17 4 15 2.</_></rects>
              <tilted>0</tilted></feature>
            <threshold>9.3324016779661179e-003</threshold>
            <left_val>-0.6030263900756836</left_val>
            <right_val>0.4736422896385193</right_val></_></_>
        <_>
          <!-- tree 12 -->
          <_>
            <!-- root node -->
            <feature>
              <rects>
                <_>
                  5 1 6 18 -1.</_>
                <_>
                  5 10 6 9 2.</_></rects>
              <tilted>0</tilted></feature>
            <threshold>4.4496401096694171e-004</threshold>
            <left_val>-0.9556360840797424</left_val>
            <right_val>0.2436552047729492</right_val></_></_>
        <_>
          <!-- tree 13 -->
          <_>
            <!-- root node -->
            <feature>
              <rects>
                <_>
                  5 5 27 21 -1.</_>
                <_>
                  5 12 27 7 3.</_></rects>
              <tilted>0</tilted></feature>
            <threshold>0.0119321895763278</threshold>
            <left_val>-0.9624933004379273</left_val>
            <right_val>0.0129299303516746</right_val></_></_>
        <_>
          <!-- tree 14 -->
          <_>
            <!-- root node -->
            <feature>
              <rects>
                <_>
                  4 26 6 6 -1.</_>
                <_>
                  7 26 3 6 2.</_></rects>
              <tilted>0</tilted></feature>
            <threshold>7.6203909702599049e-004</threshold>
            <left_val>-0.7959982156753540</left_val>
            <right_val>0.3943709135055542</right_val></_></_>
        <_>
          <!-- tree 15 -->
          <_>
            <!-- root node -->
            <feature>
              <rects>
                <_>
                  5 5 24 18 -1.</_>
                <_>
                  5 11 24 6 3.</_></rects>
              <tilted>0</tilted></feature>
            <threshold>5.6880468036979437e-004</threshold>
            <left_val>-0.9819496870040894</left_val>
            <right_val>0.2315984964370728</right_val></_></_>
        <_>
          <!-- tree 16 -->
          <_>
            <!-- root node -->
            <feature>
              <rects>
                <_>
                  7 2 9 29 -1.</_>
                <_>
                  10 2 3 29 3.</_></rects>
              <tilted>0</tilted></feature>
            <threshold>-3.1408669892698526e-003</threshold>
            <left_val>0.2937901914119721</left_val>
            <right_val>-0.9121916294097900</right_val></_></_>
        <_>
          <!-- tree 17 -->
          <_>
            <!-- root node -->
            <feature>
              <rects>
                <_>
                  9 10 14 6 -1.</_>
                <_>
                  9 12 14 2 3.</_></rects>
              <tilted>0</tilted></feature>
            <threshold>1.0093660239363089e-004</threshold>
            <left_val>-0.8267148137092590</left_val>
            <right_val>0.3975650072097778</right_val></_></_>
        <_>
          <!-- tree 18 -->
          <_>
            <!-- root node -->
            <feature>
              <rects>
                <_>
                  11 0 8 4 -1.</_>
                <_>
                  11 2 8 2 2.</_></rects>
              <tilted>0</tilted></feature>
            <threshold>-1.4429359907808248e-005</threshold>
            <left_val>0.3221993148326874</left_val>
            <right_val>-0.9128453135490418</right_val></_></_>
        <_>
          <!-- tree 19 -->
          <_>
            <!-- root node -->
            <feature>
              <rects>
                <_>
                  11 19 12 3 -1.</_>
                <_>
                  11 20 12 1 3.</_></rects>
              <tilted>0</tilted></feature>
            <threshold>3.5334649146534503e-004</threshold>
            <left_val>-0.6827576160430908</left_val>
            <right_val>0.4957926869392395</right_val></_></_>
        <_>
          <!-- tree 20 -->
          <_>
            <!-- root node -->
            <feature>
              <rects>
                <_>
                  4 0 21 11 -1.</_>
                <_>
                  11 0 7 11 3.</_></rects>
              <tilted>0</tilted></feature>
            <threshold>5.4412009194493294e-003</threshold>
            <left_val>-0.8912622928619385</left_val>
            <right_val>0.3837932944297791</right_val></_></_>
        <_>
          <!-- tree 21 -->
          <_>
            <!-- root node -->
            <feature>
              <rects>
                <_>
                  0 2 32 30 -1.</_>
                <_>
                  0 12 32 10 3.</_></rects>
              <tilted>0</tilted></feature>
            <threshold>1.9812039099633694e-003</threshold>
            <left_val>-0.9645836949348450</left_val>
            <right_val>0.1760904043912888</right_val></_></_>
        <_>
          <!-- tree 22 -->
          <_>
            <!-- root node -->
            <feature>
              <rects>
                <_>
                  0 0 24 8 -1.</_>
                <_>
                  0 0 12 4 2.</_>
                <_>
                  12 4 12 4 2.</_></rects>
              <tilted>0</tilted></feature>
            <threshold>-2.0411880686879158e-003</threshold>
            <left_val>0.3912262022495270</left_val>
            <right_val>-0.8880965113639832</right_val></_></_>
        <_>
          <!-- tree 23 -->
          <_>
            <!-- root node -->
            <feature>
              <rects>
                <_>
                  3 9 29 2 -1.</_>
                <_>
                  3 10 29 1 2.</_></rects>
              <tilted>0</tilted></feature>
            <threshold>1.1631929737632163e-005</threshold>
            <left_val>-0.8646162748336792</left_val>
            <right_val>0.3315277099609375</right_val></_></_>
        <_>
          <!-- tree 24 -->
          <_>
            <!-- root node -->
            <feature>
              <rects>
                <_>
                  2 16 20 16 -1.</_>
                <_>
                  2 16 10 8 2.</_>
                <_>
                  12 24 10 8 2.</_></rects>
              <tilted>0</tilted></feature>
            <threshold>3.7954580038785934e-003</threshold>
            <left_val>-0.8299674987792969</left_val>
            <right_val>0.4417591094970703</right_val></_></_>
        <_>
          <!-- tree 25 -->
          <_>
            <!-- root node -->
            <feature>
              <rects>
                <_>
                  7 21 21 3 -1.</_>
                <_>
                  7 22 21 1 3.</_></rects>
              <tilted>0</tilted></feature>
            <threshold>9.2353607760742307e-004</threshold>
            <left_val>-0.8128749728202820</left_val>
            <right_val>0.6450241208076477</right_val></_></_>
        <_>
          <!-- tree 26 -->
          <_>
            <!-- root node -->
            <feature>
              <rects>
                <_>
                  8 11 10 14 -1.</_>
                <_>
                  8 18 10 7 2.</_></rects>
              <tilted>0</tilted></feature>
            <threshold>-2.2663219715468585e-004</threshold>
            <left_val>0.4733808040618897</left_val>
            <right_val>-0.9837455749511719</right_val></_></_>
        <_>
          <!-- tree 27 -->
          <_>
            <!-- root node -->
            <feature>
              <rects>
                <_>
                  25 1 6 30 -1.</_>
                <_>
                  28 1 3 15 2.</_>
                <_>
                  25 16 3 15 2.</_></rects>
              <tilted>0</tilted></feature>
            <threshold>7.9794823250267655e-005</threshold>
            <left_val>-0.7184764742851257</left_val>
            <right_val>0.1393067985773087</right_val></_></_>
        <_>
          <!-- tree 28 -->
          <_>
            <!-- root node -->
            <feature>
              <rects>
                <_>
                  1 0 30 18 -1.</_>
                <_>
                  1 9 30 9 2.</_></rects>
              <tilted>0</tilted></feature>
            <threshold>4.2774900794029236e-003</threshold>
            <left_val>-0.9608368277549744</left_val>
            <right_val>0.4517601132392883</right_val></_></_>
        <_>
          <!-- tree 29 -->
          <_>
            <!-- root node -->
            <feature>
              <rects>
                <_>
                  24 3 8 26 -1.</_>
                <_>
                  28 3 4 13 2.</_>
                <_>
                  24 16 4 13 2.</_></rects>
              <tilted>0</tilted></feature>
            <threshold>-1.5560559404548258e-004</threshold>
            <left_val>0.4083190858364105</left_val>
            <right_val>-0.8507869243621826</right_val></_></_>
        <_>
          <!-- tree 30 -->
          <_>
            <!-- root node -->
            <feature>
              <rects>
                <_>
                  13 1 2 10 -1.</_>
                <_>
                  14 1 1 10 2.</_></rects>
              <tilted>0</tilted></feature>
            <threshold>2.5441808975301683e-004</threshold>
            <left_val>-0.7745255827903748</left_val>
            <right_val>0.5104492902755737</right_val></_></_>
        <_>
          <!-- tree 31 -->
          <_>
            <!-- root node -->
            <feature>
              <rects>
                <_>
                  23 2 8 28 -1.</_>
                <_>
                  27 2 4 14 2.</_>
                <_>
                  23 16 4 14 2.</_></rects>
              <tilted>0</tilted></feature>
            <threshold>3.7325778976082802e-003</threshold>
            <left_val>-0.7206522226333618</left_val>
            <right_val>0.3928790986537933</right_val></_></_>
        <_>
          <!-- tree 32 -->
          <_>
            <!-- root node -->
            <feature>
              <rects>
                <_>
                  0 3 16 24 -1.</_>
                <_>
                  0 11 16 8 3.</_></rects>
              <tilted>0</tilted></feature>
            <threshold>2.3490269668400288e-003</threshold>
            <left_val>-0.9810420870780945</left_val>
            <right_val>0.4110538959503174</right_val></_></_>
        <_>
          <!-- tree 33 -->
          <_>
            <!-- root node -->
            <feature>
              <rects>
                <_>
                  24 2 8 28 -1.</_>
                <_>
                  28 2 4 14 2.</_>
                <_>
                  24 16 4 14 2.</_></rects>
              <tilted>0</tilted></feature>
            <threshold>-0.0173942297697067</threshold>
            <left_val>0.6037529706954956</left_val>
            <right_val>-0.8595755100250244</right_val></_></_>
        <_>
          <!-- tree 34 -->
          <_>
            <!-- root node -->
            <feature>
              <rects>
                <_>
                  1 5 17 18 -1.</_>
                <_>
                  1 11 17 6 3.</_></rects>
              <tilted>0</tilted></feature>
            <threshold>3.4839659929275513e-004</threshold>
            <left_val>-0.9091777205467224</left_val>
            <right_val>0.4891582131385803</right_val></_></_>
        <_>
          <!-- tree 35 -->
          <_>
            <!-- root node -->
            <feature>
              <rects>
                <_>
                  23 2 8 28 -1.</_>
                <_>
                  27 2 4 14 2.</_>
                <_>
                  23 16 4 14 2.</_></rects>
              <tilted>0</tilted></feature>
            <threshold>1.1896339856320992e-004</threshold>
            <left_val>-0.8466386795043945</left_val>
            <right_val>0.2367846071720123</right_val></_></_>
        <_>
          <!-- tree 36 -->
          <_>
            <!-- root node -->
            <feature>
              <rects>
                <_>
                  0 2 8 28 -1.</_>
                <_>
                  0 2 4 14 2.</_>
                <_>
                  4 16 4 14 2.</_></rects>
              <tilted>0</tilted></feature>
            <threshold>1.0091490112245083e-003</threshold>
            <left_val>-0.8815609812736511</left_val>
            <right_val>0.6349382996559143</right_val></_></_>
        <_>
          <!-- tree 37 -->
          <_>
            <!-- root node -->
            <feature>
              <rects>
                <_>
                  18 11 6 18 -1.</_>
                <_>
                  21 11 3 9 2.</_>
                <_>
                  18 20 3 9 2.</_></rects>
              <tilted>0</tilted></feature>
            <threshold>-1.2629220145754516e-004</threshold>
            <left_val>0.3171006143093109</left_val>
            <right_val>-0.8804619908332825</right_val></_></_>
        <_>
          <!-- tree 38 -->
          <_>
            <!-- root node -->
            <feature>
              <rects>
                <_>
                  7 2 2 27 -1.</_>
                <_>
                  7 11 2 9 3.</_></rects>
              <tilted>0</tilted></feature>
            <threshold>8.4306542703416198e-005</threshold>
            <left_val>-0.9344242215156555</left_val>
            <right_val>0.5843880176544190</right_val></_></_>
        <_>
          <!-- tree 39 -->
          <_>
            <!-- root node -->
            <feature>
              <rects>
                <_>
                  14 9 6 18 -1.</_>
                <_>
                  14 15 6 6 3.</_></rects>
              <tilted>0</tilted></feature>
            <threshold>-2.5098100304603577e-003</threshold>
            <left_val>0.4821816980838776</left_val>
            <right_val>-0.8767182826995850</right_val></_></_>
        <_>
          <!-- tree 40 -->
          <_>
            <!-- root node -->
            <feature>
              <rects>
                <_>
                  5 10 21 18 -1.</_>
                <_>
                  5 19 21 9 2.</_></rects>
              <tilted>0</tilted></feature>
            <threshold>-8.7348418310284615e-004</threshold>
            <left_val>0.4076999127864838</left_val>
            <right_val>-0.9423760771751404</right_val></_></_>
        <_>
          <!-- tree 41 -->
          <_>
            <!-- root node -->
            <feature>
              <rects>
                <_>
                  23 1 2 2 -1.</_>
                <_>
                  23 1 1 2 2.</_></rects>
              <tilted>0</tilted></feature>
            <threshold>2.4894750822568312e-005</threshold>
            <left_val>-0.5256394147872925</left_val>
            <right_val>0.2475356012582779</right_val></_></_>
        <_>
          <!-- tree 42 -->
          <_>
            <!-- root node -->
            <feature>
              <rects>
                <_>
                  0 26 25 6 -1.</_>
                <_>
                  0 28 25 2 3.</_></rects>
              <tilted>0</tilted></feature>
            <threshold>3.2508058939129114e-003</threshold>
            <left_val>-0.6230127811431885</left_val>
            <right_val>0.6412072181701660</right_val></_></_>
        <_>
          <!-- tree 43 -->
          <_>
            <!-- root node -->
            <feature>
              <rects>
                <_>
                  19 13 4 10 -1.</_>
                <_>
                  21 13 2 5 2.</_>
                <_>
                  19 18 2 5 2.</_></rects>
              <tilted>0</tilted></feature>
            <threshold>7.1447007940150797e-005</threshold>
            <left_val>-0.7157660126686096</left_val>
            <right_val>0.6428254842758179</right_val></_></_>
        <_>
          <!-- tree 44 -->
          <_>
            <!-- root node -->
            <feature>
              <rects>
                <_>
                  0 11 23 6 -1.</_>
                <_>
                  0 13 23 2 3.</_></rects>
              <tilted>0</tilted></feature>
            <threshold>6.9052900653332472e-004</threshold>
            <left_val>-0.9435958862304688</left_val>
            <right_val>0.5144459009170532</right_val></_></_>
        <_>
          <!-- tree 45 -->
          <_>
            <!-- root node -->
            <feature>
              <rects>
                <_>
                  20 9 12 3 -1.</_>
                <_>
                  24 9 4 3 3.</_></rects>
              <tilted>0</tilted></feature>
            <threshold>1.3906019739806652e-004</threshold>
            <left_val>-0.9257906079292297</left_val>
            <right_val>0.3888145983219147</right_val></_></_>
        <_>
          <!-- tree 46 -->
          <_>
            <!-- root node -->
            <feature>
              <rects>
                <_>
                  0 9 12 4 -1.</_>
                <_>
                  4 9 4 4 3.</_></rects>
              <tilted>0</tilted></feature>
            <threshold>4.0095849544741213e-004</threshold>
            <left_val>-0.9545105099678040</left_val>
            <right_val>0.7320758104324341</right_val></_></_>
        <_>
          <!-- tree 47 -->
          <_>
            <!-- root node -->
            <feature>
              <rects>
                <_>
                  20 4 12 15 -1.</_>
                <_>
                  24 4 4 15 3.</_></rects>
              <tilted>0</tilted></feature>
            <threshold>2.9437988996505737e-003</threshold>
            <left_val>-0.9686279892921448</left_val>
            <right_val>0.4679546058177948</right_val></_></_>
        <_>
          <!-- tree 48 -->
          <_>
            <!-- root node -->
            <feature>
              <rects>
                <_>
                  0 10 25 22 -1.</_>
                <_>
                  0 21 25 11 2.</_></rects>
              <tilted>0</tilted></feature>
            <threshold>-0.0100537901744246</threshold>
            <left_val>0.7540498971939087</left_val>
            <right_val>-0.9971625804901123</right_val></_></_>
        <_>
          <!-- tree 49 -->
          <_>
            <!-- root node -->
            <feature>
              <rects>
                <_>
                  9 18 14 8 -1.</_>
                <_>
                  16 18 7 4 2.</_>
                <_>
                  9 22 7 4 2.</_></rects>
              <tilted>0</tilted></feature>
            <threshold>2.3948130547069013e-004</threshold>
            <left_val>-0.9697111845016480</left_val>
            <right_val>0.7393648028373718</right_val></_></_>
        <_>
          <!-- tree 50 -->
          <_>
            <!-- root node -->
            <feature>
              <rects>
                <_>
                  7 27 6 5 -1.</_>
                <_>
                  9 27 2 5 3.</_></rects>
              <tilted>0</tilted></feature>
            <threshold>5.7664019550429657e-005</threshold>
            <left_val>-0.9940633773803711</left_val>
            <right_val>0.7361024022102356</right_val></_></_>
        <_>
          <!-- tree 51 -->
          <_>
            <!-- root node -->
            <feature>
              <rects>
                <_>
                  16 30 4 2 -1.</_>
                <_>
                  16 31 4 1 2.</_></rects>
              <tilted>0</tilted></feature>
            <threshold>3.3722619991749525e-004</threshold>
            <left_val>-1.</left_val>
            <right_val>0.4139002859592438</right_val></_></_>
        <_>
          <!-- tree 52 -->
          <_>
            <!-- root node -->
            <feature>
              <rects>
                <_>
                  10 29 4 3 -1.</_>
                <_>
                  10 30 4 1 3.</_></rects>
              <tilted>0</tilted></feature>
            <threshold>-9.0842557256110013e-005</threshold>
            <left_val>1.</left_val>
            <right_val>-1.</right_val></_></_>
        <_>
          <!-- tree 53 -->
          <_>
            <!-- root node -->
            <feature>
              <rects>
                <_>
                  8 6 24 15 -1.</_>
                <_>
                  8 11 24 5 3.</_></rects>
              <tilted>0</tilted></feature>
            <threshold>2.1224990487098694e-003</threshold>
            <left_val>-0.9902155995368958</left_val>
            <right_val>0.7923675775527954</right_val></_></_>
        <_>
          <!-- tree 54 -->
          <_>
            <!-- root node -->
            <feature>
              <rects>
                <_>
                  9 15 1 2 -1.</_>
                <_>
                  9 16 1 1 2.</_></rects>
              <tilted>0</tilted></feature>
            <threshold>2.2260339392232709e-005</threshold>
            <left_val>-1.</left_val>
            <right_val>0.8821617960929871</right_val></_></_>
        <_>
          <!-- tree 55 -->
          <_>
            <!-- root node -->
            <feature>
              <rects>
                <_>
                  30 0 2 1 -1.</_>
                <_>
                  30 0 1 1 2.</_></rects>
              <tilted>0</tilted></feature>
            <threshold>0.</threshold>
            <left_val>0.</left_val>
            <right_val>-1.</right_val></_></_>
        <_>
          <!-- tree 56 -->
          <_>
            <!-- root node -->
            <feature>
              <rects>
                <_>
                  5 6 13 15 -1.</_>
                <_>
                  5 11 13 5 3.</_></rects>
              <tilted>0</tilted></feature>
            <threshold>5.6525920517742634e-003</threshold>
            <left_val>-0.9971166253089905</left_val>
            <right_val>0.9125559926033020</right_val></_></_>
        <_>
          <!-- tree 57 -->
          <_>
            <!-- root node -->
            <feature>
              <rects>
                <_>
                  22 30 4 2 -1.</_>
                <_>
                  22 31 4 1 2.</_></rects>
              <tilted>0</tilted></feature>
            <threshold>-3.9726469549350441e-004</threshold>
            <left_val>1.</left_val>
            <right_val>-0.9999998807907105</right_val></_></_>
        <_>
          <!-- tree 58 -->
          <_>
            <!-- root node -->
            <feature>
              <rects>
                <_>
                  1 9 24 2 -1.</_>
                <_>
                  1 10 24 1 2.</_></rects>
              <tilted>0</tilted></feature>
            <threshold>5.6241879065055400e-005</threshold>
            <left_val>-0.9892550706863403</left_val>
            <right_val>0.8553944230079651</right_val></_></_>
        <_>
          <!-- tree 59 -->
          <_>
            <!-- root node -->
            <feature>
              <rects>
                <_>
                  13 28 9 3 -1.</_>
                <_>
                  13 29 9 1 3.</_></rects>
              <tilted>0</tilted></feature>
            <threshold>-9.3432870926335454e-004</threshold>
            <left_val>0.6914123892784119</left_val>
            <right_val>-0.9999998807907105</right_val></_></_>
        <_>
          <!-- tree 60 -->
          <_>
            <!-- root node -->
            <feature>
              <rects>
                <_>
                  8 3 12 9 -1.</_>
                <_>
                  14 3 6 9 2.</_></rects>
              <tilted>0</tilted></feature>
            <threshold>1.5664589591324329e-003</threshold>
            <left_val>-0.9905433058738709</left_val>
            <right_val>0.8041478991508484</right_val></_></_>
        <_>
          <!-- tree 61 -->
          <_>
            <!-- root node -->
            <feature>
              <rects>
                <_>
                  1 9 30 4 -1.</_>
                <_>
                  16 9 15 2 2.</_>
                <_>
                  1 11 15 2 2.</_></rects>
              <tilted>0</tilted></feature>
            <threshold>-1.4514979557134211e-004</threshold>
            <left_val>1.</left_val>
            <right_val>-1.</right_val></_></_>
        <_>
          <!-- tree 62 -->
          <_>
            <!-- root node -->
            <feature>
              <rects>
                <_>
                  0 8 32 6 -1.</_>
                <_>
                  0 8 16 3 2.</_>
                <_>
                  16 11 16 3 2.</_></rects>
              <tilted>0</tilted></feature>
            <threshold>-4.8115689423866570e-004</threshold>
            <left_val>0.8452674746513367</left_val>
            <right_val>-0.9790459871292114</right_val></_></_>
        <_>
          <!-- tree 63 -->
          <_>
            <!-- root node -->
            <feature>
              <rects>
                <_>
                  12 28 11 3 -1.</_>
                <_>
                  12 29 11 1 3.</_></rects>
              <tilted>0</tilted></feature>
            <threshold>2.3060509192873724e-005</threshold>
            <left_val>-0.9039093852043152</left_val>
            <right_val>0.5746293067932129</right_val></_></_>
        <_>
          <!-- tree 64 -->
          <_>
            <!-- root node -->
            <feature>
              <rects>
                <_>
                  5 15 3 5 -1.</_>
                <_>
                  6 15 1 5 3.</_></rects>
              <tilted>0</tilted></feature>
            <threshold>2.0289509848225862e-005</threshold>
            <left_val>-0.9477229714393616</left_val>
            <right_val>0.8153417110443115</right_val></_></_>
        <_>
          <!-- tree 65 -->
          <_>
            <!-- root node -->
            <feature>
              <rects>
                <_>
                  15 0 6 8 -1.</_>
                <_>
                  15 4 6 4 2.</_></rects>
              <tilted>0</tilted></feature>
            <threshold>-2.3184300516732037e-004</threshold>
            <left_val>0.8921831846237183</left_val>
            <right_val>-0.9884299039840698</right_val></_></_>
        <_>
          <!-- tree 66 -->
          <_>
            <!-- root node -->
            <feature>
              <rects>
                <_>
                  1 4 2 22 -1.</_>
                <_>
                  1 4 1 11 2.</_>
                <_>
                  2 15 1 11 2.</_></rects>
              <tilted>0</tilted></feature>
            <threshold>1.9005140347871929e-004</threshold>
            <left_val>-0.9695793986320496</left_val>
            <right_val>0.7343937158584595</right_val></_></_>
        <_>
          <!-- tree 67 -->
          <_>
            <!-- root node -->
            <feature>
              <rects>
                <_>
                  18 0 6 7 -1.</_>
                <_>
                  18 0 3 7 2.</_></rects>
              <tilted>0</tilted></feature>
            <threshold>5.4634269326925278e-004</threshold>
            <left_val>-0.9887127876281738</left_val>
            <right_val>0.6379495859146118</right_val></_></_>
        <_>
          <!-- tree 68 -->
          <_>
            <!-- root node -->
            <feature>
              <rects>
                <_>
                  6 0 2 16 -1.</_>
                <_>
                  6 8 2 8 2.</_></rects>
              <tilted>0</tilted></feature>
            <threshold>0.0105584999546409</threshold>
            <left_val>-1.</left_val>
            <right_val>1.0004279613494873</right_val></_></_>
        <_>
          <!-- tree 69 -->
          <_>
            <!-- root node -->
            <feature>
              <rects>
                <_>
                  30 0 2 22 -1.</_>
                <_>
                  30 0 1 22 2.</_></rects>
              <tilted>0</tilted></feature>
            <threshold>0.</threshold>
            <left_val>0.</left_val>
            <right_val>-1.</right_val></_></_>
        <_>
          <!-- tree 70 -->
          <_>
            <!-- root node -->
            <feature>
              <rects>
                <_>
                  6 7 11 20 -1.</_>
                <_>
                  6 17 11 10 2.</_></rects>
              <tilted>0</tilted></feature>
            <threshold>-3.2232850790023804e-003</threshold>
            <left_val>0.9393550157546997</left_val>
            <right_val>-0.9980670213699341</right_val></_></_>
        <_>
          <!-- tree 71 -->
          <_>
            <!-- root node -->
            <feature>
              <rects>
                <_>
                  19 0 2 6 -1.</_>
                <_>
                  19 3 2 3 2.</_></rects>
              <tilted>0</tilted></feature>
            <threshold>-2.5181350792990997e-005</threshold>
            <left_val>0.3236618936061859</left_val>
            <right_val>-0.9453145861625671</right_val></_></_>
        <_>
          <!-- tree 72 -->
          <_>
            <!-- root node -->
            <feature>
              <rects>
                <_>
                  6 23 12 4 -1.</_>
                <_>
                  10 23 4 4 3.</_></rects>
              <tilted>0</tilted></feature>
            <threshold>-2.3034899495542049e-003</threshold>
            <left_val>0.7632305026054382</left_val>
            <right_val>-0.8611785173416138</right_val></_></_>
        <_>
          <!-- tree 73 -->
          <_>
            <!-- root node -->
            <feature>
              <rects>
                <_>
                  19 30 2 1 -1.</_>
                <_>
                  19 30 1 1 2.</_></rects>
              <tilted>0</tilted></feature>
            <threshold>1.2782469639205374e-005</threshold>
            <left_val>-0.5080044269561768</left_val>
            <right_val>0.6283689141273499</right_val></_></_>
        <_>
          <!-- tree 74 -->
          <_>
            <!-- root node -->
            <feature>
              <rects>
                <_>
                  8 11 5 6 -1.</_>
                <_>
                  8 13 5 2 3.</_></rects>
              <tilted>0</tilted></feature>
            <threshold>2.0816709366044961e-005</threshold>
            <left_val>-0.9346613883972168</left_val>
            <right_val>0.6254969239234924</right_val></_></_>
        <_>
          <!-- tree 75 -->
          <_>
            <!-- root node -->
            <feature>
              <rects>
                <_>
                  15 20 5 3 -1.</_>
                <_>
                  15 21 5 1 3.</_></rects>
              <tilted>0</tilted></feature>
            <threshold>4.2737839976325631e-004</threshold>
            <left_val>-0.8758360743522644</left_val>
            <right_val>0.6371018290519714</right_val></_></_>
        <_>
          <!-- tree 76 -->
          <_>
            <!-- root node -->
            <feature>
              <rects>
                <_>
                  4 12 24 14 -1.</_>
                <_>
                  4 12 12 7 2.</_>
                <_>
                  16 19 12 7 2.</_></rects>
              <tilted>0</tilted></feature>
            <threshold>-1.9226119620725513e-003</threshold>
            <left_val>0.9294726252555847</left_val>
            <right_val>-0.9676489830017090</right_val></_></_>
        <_>
          <!-- tree 77 -->
          <_>
            <!-- root node -->
            <feature>
              <rects>
                <_>
                  12 22 20 9 -1.</_>
                <_>
                  12 22 10 9 2.</_></rects>
              <tilted>0</tilted></feature>
            <threshold>-4.6285628341138363e-003</threshold>
            <left_val>0.6489111185073853</left_val>
            <right_val>-0.7329226136207581</right_val></_></_>
        <_>
          <!-- tree 78 -->
          <_>
            <!-- root node -->
            <feature>
              <rects>
                <_>
                  5 5 10 14 -1.</_>
                <_>
                  5 12 10 7 2.</_></rects>
              <tilted>0</tilted></feature>
            <threshold>1.8156159785576165e-004</threshold>
            <left_val>-0.9144160151481628</left_val>
            <right_val>0.6867455244064331</right_val></_></_>
        <_>
          <!-- tree 79 -->
          <_>
            <!-- root node -->
            <feature>
              <rects>
                <_>
                  1 22 30 8 -1.</_>
                <_>
                  11 22 10 8 3.</_></rects>
              <tilted>0</tilted></feature>
            <threshold>0.0243736393749714</threshold>
            <left_val>-0.8969134092330933</left_val>
            <right_val>0.8066663146018982</right_val></_></_>
        <_>
          <!-- tree 80 -->
          <_>
            <!-- root node -->
            <feature>
              <rects>
                <_>
                  10 6 3 9 -1.</_>
                <_>
                  10 9 3 3 3.</_></rects>
              <tilted>0</tilted></feature>
            <threshold>4.4842690113000572e-004</threshold>
            <left_val>-0.9729052186012268</left_val>
            <right_val>0.7874248027801514</right_val></_></_>
        <_>
          <!-- tree 81 -->
          <_>
            <!-- root node -->
            <feature>
              <rects>
                <_>
                  15 11 3 15 -1.</_>
                <_>
                  15 16 3 5 3.</_></rects>
              <tilted>0</tilted></feature>
            <threshold>-1.1797410115832463e-004</threshold>
            <left_val>0.8188598752021790</left_val>
            <right_val>-0.9924545288085938</right_val></_></_>
        <_>
          <!-- tree 82 -->
          <_>
            <!-- root node -->
            <feature>
              <rects>
                <_>
                  5 0 7 10 -1.</_>
                <_>
                  5 5 7 5 2.</_></rects>
              <tilted>0</tilted></feature>
            <threshold>-1.2824119767174125e-004</threshold>
            <left_val>0.6592763066291809</left_val>
            <right_val>-0.9686028957366943</right_val></_></_>
        <_>
          <!-- tree 83 -->
          <_>
            <!-- root node -->
            <feature>
              <rects>
                <_>
                  22 0 4 30 -1.</_>
                <_>
                  22 10 4 10 3.</_></rects>
              <tilted>0</tilted></feature>
            <threshold>2.3573299404233694e-003</threshold>
            <left_val>-0.9537389874458313</left_val>
            <right_val>0.3080888092517853</right_val></_></_>
        <_>
          <!-- tree 84 -->
          <_>
            <!-- root node -->
            <feature>
              <rects>
                <_>
                  7 11 14 15 -1.</_>
                <_>
                  7 16 14 5 3.</_></rects>
              <tilted>0</tilted></feature>
            <threshold>4.3968411046080291e-004</threshold>
            <left_val>-0.8926265239715576</left_val>
            <right_val>0.6882001161575317</right_val></_></_>
        <_>
          <!-- tree 85 -->
          <_>
            <!-- root node -->
            <feature>
              <rects>
                <_>
                  18 1 4 1 -1.</_>
                <_>
                  18 1 2 1 2.</_></rects>
              <tilted>0</tilted></feature>
            <threshold>4.1994728235295042e-005</threshold>
            <left_val>-0.9396905899047852</left_val>
            <right_val>0.3637082874774933</right_val></_></_>
        <_>
          <!-- tree 86 -->
          <_>
            <!-- root node -->
            <feature>
              <rects>
                <_>
                  10 10 7 21 -1.</_>
                <_>
                  10 17 7 7 3.</_></rects>
              <tilted>0</tilted></feature>
            <threshold>-1.4753649884369224e-004</threshold>
            <left_val>0.7076457142829895</left_val>
            <right_val>-0.9932615756988525</right_val></_></_>
        <_>
          <!-- tree 87 -->
          <_>
            <!-- root node -->
            <feature>
              <rects>
                <_>
                  24 0 8 1 -1.</_>
                <_>
                  24 0 4 1 2.</_></rects>
              <tilted>0</tilted></feature>
            <threshold>1.6957559273578227e-004</threshold>
            <left_val>-0.9292598962783814</left_val>
            <right_val>0.3506999015808106</right_val></_></_>
        <_>
          <!-- tree 88 -->
          <_>
            <!-- root node -->
            <feature>
              <rects>
                <_>
                  12 29 2 3 -1.</_>
                <_>
                  12 30 2 1 3.</_></rects>
              <tilted>0</tilted></feature>
            <threshold>1.0136520359083079e-005</threshold>
            <left_val>-0.9375467896461487</left_val>
            <right_val>0.8896210789680481</right_val></_></_>
        <_>
          <!-- tree 89 -->
          <_>
            <!-- root node -->
            <feature>
              <rects>
                <_>
                  23 15 3 3 -1.</_>
                <_>
                  24 15 1 3 3.</_></rects>
              <tilted>0</tilted></feature>
            <threshold>-1.6591620806138963e-005</threshold>
            <left_val>0.6435738205909729</left_val>
            <right_val>-0.9579113721847534</right_val></_></_>
        <_>
          <!-- tree 90 -->
          <_>
            <!-- root node -->
            <feature>
              <rects>
                <_>
                  0 14 32 14 -1.</_>
                <_>
                  0 21 32 7 2.</_></rects>
              <tilted>0</tilted></feature>
            <threshold>-4.8694037832319736e-003</threshold>
            <left_val>0.7320359945297241</left_val>
            <right_val>-0.9799265265464783</right_val></_></_>
        <_>
          <!-- tree 91 -->
          <_>
            <!-- root node -->
            <feature>
              <rects>
                <_>
                  18 1 4 4 -1.</_>
                <_>
                  18 1 2 4 2.</_></rects>
              <tilted>0</tilted></feature>
            <threshold>1.3359810691326857e-004</threshold>
            <left_val>-0.7176681160926819</left_val>
            <right_val>0.1616750955581665</right_val></_></_>
        <_>
          <!-- tree 92 -->
          <_>
            <!-- root node -->
            <feature>
              <rects>
                <_>
                  7 1 10 27 -1.</_>
                <_>
                  12 1 5 27 2.</_></rects>
              <tilted>0</tilted></feature>
            <threshold>3.6882429849356413e-003</threshold>
            <left_val>-0.9145718812942505</left_val>
            <right_val>0.6796702146530151</right_val></_></_>
        <_>
          <!-- tree 93 -->
          <_>
            <!-- root node -->
            <feature>
              <rects>
                <_>
                  5 1 27 9 -1.</_>
                <_>
                  5 4 27 3 3.</_></rects>
              <tilted>0</tilted></feature>
            <threshold>-1.3143540127202868e-003</threshold>
            <left_val>0.3094170093536377</left_val>
            <right_val>-0.9842150211334229</right_val></_></_></trees>
      <stage_threshold>-3.5409131050109863</stage_threshold>
      <parent>3</parent>
      <next>-1</next></_>
    <_>
      <!-- stage 5 -->
      <trees>
        <_>
          <!-- tree 0 -->
          <_>
            <!-- root node -->
            <feature>
              <rects>
                <_>
                  5 4 22 21 -1.</_>
                <_>
                  5 11 22 7 3.</_></rects>
              <tilted>0</tilted></feature>
            <threshold>0.0223055798560381</threshold>
            <left_val>-0.9969313144683838</left_val>
            <right_val>0.9326099157333374</right_val></_></_>
        <_>
          <!-- tree 1 -->
          <_>
            <!-- root node -->
            <feature>
              <rects>
                <_>
                  4 5 28 15 -1.</_>
                <_>
                  4 10 28 5 3.</_></rects>
              <tilted>0</tilted></feature>
            <threshold>0.0689741969108582</threshold>
            <left_val>-0.9921957254409790</left_val>
            <right_val>0.6914976835250855</right_val></_></_>
        <_>
          <!-- tree 2 -->
          <_>
            <!-- root node -->
            <feature>
              <rects>
                <_>
                  6 15 20 2 -1.</_>
                <_>
                  6 16 20 1 2.</_></rects>
              <tilted>0</tilted></feature>
            <threshold>-1.9286920723970979e-004</threshold>
            <left_val>-1.</left_val>
            <right_val>-1.</right_val></_></_>
        <_>
          <!-- tree 3 -->
          <_>
            <!-- root node -->
            <feature>
              <rects>
                <_>
                  3 2 27 27 -1.</_>
                <_>
                  3 11 27 9 3.</_></rects>
              <tilted>0</tilted></feature>
            <threshold>5.0904201343655586e-003</threshold>
            <left_val>-0.9973173141479492</left_val>
            <right_val>0.8363950252532959</right_val></_></_>
        <_>
          <!-- tree 4 -->
          <_>
            <!-- root node -->
            <feature>
              <rects>
                <_>
                  9 2 6 12 -1.</_>
                <_>
                  9 8 6 6 2.</_></rects>
              <tilted>0</tilted></feature>
            <threshold>-1.4490759349428117e-004</threshold>
            <left_val>0.8965799212455750</left_val>
            <right_val>-0.9934424161911011</right_val></_></_>
        <_>
          <!-- tree 5 -->
          <_>
            <!-- root node -->
            <feature>
              <rects>
                <_>
                  19 2 8 24 -1.</_>
                <_>
                  19 10 8 8 3.</_></rects>
              <tilted>0</tilted></feature>
            <threshold>3.3544289181008935e-004</threshold>
            <left_val>-0.9904239773750305</left_val>
            <right_val>0.8639565706253052</right_val></_></_>
        <_>
          <!-- tree 6 -->
          <_>
            <!-- root node -->
            <feature>
              <rects>
                <_>
                  7 0 18 12 -1.</_>
                <_>
                  7 4 18 4 3.</_></rects>
              <tilted>0</tilted></feature>
            <threshold>-0.0434124507009983</threshold>
            <left_val>0.6645249724388123</left_val>
            <right_val>-0.9868143200874329</right_val></_></_>
        <_>
          <!-- tree 7 -->
          <_>
            <!-- root node -->
            <feature>
              <rects>
                <_>
                  16 0 8 9 -1.</_>
                <_>
                  16 0 4 9 2.</_></rects>
              <tilted>0</tilted></feature>
            <threshold>4.1482748929411173e-004</threshold>
            <left_val>-0.9837709069252014</left_val>
            <right_val>0.3560881912708283</right_val></_></_>
        <_>
          <!-- tree 8 -->
          <_>
            <!-- root node -->
            <feature>
              <rects>
                <_>
                  1 4 28 3 -1.</_>
                <_>
                  1 5 28 1 3.</_></rects>
              <tilted>0</tilted></feature>
            <threshold>2.8956630267202854e-003</threshold>
            <left_val>-0.9746971130371094</left_val>
            <right_val>0.9290040731430054</right_val></_></_>
        <_>
          <!-- tree 9 -->
          <_>
            <!-- root node -->
            <feature>
              <rects>
                <_>
                  7 1 22 3 -1.</_>
                <_>
                  7 1 11 3 2.</_></rects>
              <tilted>0</tilted></feature>
            <threshold>-2.0928550511598587e-003</threshold>
            <left_val>0.5841702818870544</left_val>
            <right_val>-0.9963930845260620</right_val></_></_>
        <_>
          <!-- tree 10 -->
          <_>
            <!-- root node -->
            <feature>
              <rects>
                <_>
                  5 3 10 24 -1.</_>
                <_>
                  5 11 10 8 3.</_></rects>
              <tilted>0</tilted></feature>
            <threshold>4.5126518234610558e-003</threshold>
            <left_val>-0.9997956156730652</left_val>
            <right_val>0.8634682297706604</right_val></_></_>
        <_>
          <!-- tree 11 -->
          <_>
            <!-- root node -->
            <feature>
              <rects>
                <_>
                  19 24 2 3 -1.</_>
                <_>
                  19 25 2 1 3.</_></rects>
              <tilted>0</tilted></feature>
            <threshold>2.1369960159063339e-003</threshold>
            <left_val>-1.</left_val>
            <right_val>0.9919037222862244</right_val></_></_>
        <_>
          <!-- tree 12 -->
          <_>
            <!-- root node -->
            <feature>
              <rects>
                <_>
                  0 0 2 1 -1.</_>
                <_>
                  1 0 1 1 2.</_></rects>
              <tilted>0</tilted></feature>
            <threshold>0.</threshold>
            <left_val>0.</left_val>
            <right_val>-1.</right_val></_></_>
        <_>
          <!-- tree 13 -->
          <_>
            <!-- root node -->
            <feature>
              <rects>
                <_>
                  17 5 14 18 -1.</_>
                <_>
                  17 11 14 6 3.</_></rects>
              <tilted>0</tilted></feature>
            <threshold>3.6277389153838158e-004</threshold>
            <left_val>-0.9885991215705872</left_val>
            <right_val>0.9837520718574524</right_val></_></_>
        <_>
          <!-- tree 14 -->
          <_>
            <!-- root node -->
            <feature>
              <rects>
                <_>
                  15 29 2 3 -1.</_>
                <_>
                  15 30 2 1 3.</_></rects>
              <tilted>0</tilted></feature>
            <threshold>7.0199603214859962e-005</threshold>
            <left_val>-1.</left_val>
            <right_val>1.0046370029449463</right_val></_></_>
        <_>
          <!-- tree 15 -->
          <_>
            <!-- root node -->
            <feature>
              <rects>
                <_>
                  30 0 2 1 -1.</_>
                <_>
                  30 0 1 1 2.</_></rects>
              <tilted>0</tilted></feature>
            <threshold>0.</threshold>
            <left_val>0.</left_val>
            <right_val>-1.</right_val></_></_>
        <_>
          <!-- tree 16 -->
          <_>
            <!-- root node -->
            <feature>
              <rects>
                <_>
                  3 6 15 15 -1.</_>
                <_>
                  3 11 15 5 3.</_></rects>
              <tilted>0</tilted></feature>
            <threshold>2.8011130052618682e-004</threshold>
            <left_val>-0.9997574090957642</left_val>
            <right_val>0.9651548266410828</right_val></_></_>
        <_>
          <!-- tree 17 -->
          <_>
            <!-- root node -->
            <feature>
              <rects>
                <_>
                  30 0 2 22 -1.</_>
                <_>
                  30 0 1 22 2.</_></rects>
              <tilted>0</tilted></feature>
            <threshold>0.</threshold>
            <left_val>0.</left_val>
            <right_val>-1.</right_val></_></_>
        <_>
          <!-- tree 18 -->
          <_>
            <!-- root node -->
            <feature>
              <rects>
                <_>
                  0 10 32 18 -1.</_>
                <_>
                  0 19 32 9 2.</_></rects>
              <tilted>0</tilted></feature>
            <threshold>-2.1059880964457989e-003</threshold>
            <left_val>0.9361441731452942</left_val>
            <right_val>-0.9975057244300842</right_val></_></_>
        <_>
          <!-- tree 19 -->
          <_>
            <!-- root node -->
            <feature>
              <rects>
                <_>
                  16 6 6 12 -1.</_>
                <_>
                  16 10 6 4 3.</_></rects>
              <tilted>0</tilted></feature>
            <threshold>3.0106739723123610e-004</threshold>
            <left_val>-0.9777296781539917</left_val>
            <right_val>0.6818634867668152</right_val></_></_>
        <_>
          <!-- tree 20 -->
          <_>
            <!-- root node -->
            <feature>
              <rects>
                <_>
                  0 23 22 8 -1.</_>
                <_>
                  0 23 11 4 2.</_>
                <_>
                  11 27 11 4 2.</_></rects>
              <tilted>0</tilted></feature>
            <threshold>0.0132773602381349</threshold>
            <left_val>-1.</left_val>
            <right_val>1.0033420324325562</right_val></_></_>
        <_>
          <!-- tree 21 -->
          <_>
            <!-- root node -->
            <feature>
              <rects>
                <_>
                  30 0 2 1 -1.</_>
                <_>
                  30 0 1 1 2.</_></rects>
              <tilted>0</tilted></feature>
            <threshold>0.</threshold>
            <left_val>0.</left_val>
            <right_val>-1.</right_val></_></_>
        <_>
          <!-- tree 22 -->
          <_>
            <!-- root node -->
            <feature>
              <rects>
                <_>
                  2 1 27 5 -1.</_>
                <_>
                  11 1 9 5 3.</_></rects>
              <tilted>0</tilted></feature>
            <threshold>1.0295699757989496e-004</threshold>
            <left_val>-0.9986041784286499</left_val>
            <right_val>0.8694022893905640</right_val></_></_>
        <_>
          <!-- tree 23 -->
          <_>
            <!-- root node -->
            <feature>
              <rects>
                <_>
                  30 0 2 8 -1.</_>
                <_>
                  31 0 1 4 2.</_>
                <_>
                  30 4 1 4 2.</_></rects>
              <tilted>0</tilted></feature>
            <threshold>-6.2288582557812333e-004</threshold>
            <left_val>1.</left_val>
            <right_val>-1.</right_val></_></_>
        <_>
          <!-- tree 24 -->
          <_>
            <!-- root node -->
            <feature>
              <rects>
                <_>
                  2 3 5 21 -1.</_>
                <_>
                  2 10 5 7 3.</_></rects>
              <tilted>0</tilted></feature>
            <threshold>1.0578599758446217e-003</threshold>
            <left_val>-0.9973195195198059</left_val>
            <right_val>0.8194037079811096</right_val></_></_>
        <_>
          <!-- tree 25 -->
          <_>
            <!-- root node -->
            <feature>
              <rects>
                <_>
                  28 0 4 1 -1.</_>
                <_>
                  28 0 2 1 2.</_></rects>
              <tilted>0</tilted></feature>
            <threshold>7.6548760989680886e-004</threshold>
            <left_val>-0.9987195134162903</left_val>
            <right_val>1.0153520107269287</right_val></_></_>
        <_>
          <!-- tree 26 -->
          <_>
            <!-- root node -->
            <feature>
              <rects>
                <_>
                  9 30 1 2 -1.</_>
                <_>
                  9 31 1 1 2.</_></rects>
              <tilted>0</tilted></feature>
            <threshold>-1.4060469766263850e-005</threshold>
            <left_val>1.</left_val>
            <right_val>-0.9999998807907105</right_val></_></_>
        <_>
          <!-- tree 27 -->
          <_>
            <!-- root node -->
            <feature>
              <rects>
                <_>
                  19 15 1 15 -1.</_>
                <_>
                  19 20 1 5 3.</_></rects>
              <tilted>0</tilted></feature>
            <threshold>-1.1213660036446527e-004</threshold>
            <left_val>1.</left_val>
            <right_val>-0.9972482919692993</right_val></_></_>
        <_>
          <!-- tree 28 -->
          <_>
            <!-- root node -->
            <feature>
              <rects>
                <_>
                  1 12 17 8 -1.</_>
                <_>
                  1 16 17 4 2.</_></rects>
              <tilted>0</tilted></feature>
            <threshold>-6.3272117404267192e-004</threshold>
            <left_val>0.9310047030448914</left_val>
            <right_val>-0.9980896711349487</right_val></_></_>
        <_>
          <!-- tree 29 -->
          <_>
            <!-- root node -->
            <feature>
              <rects>
                <_>
                  18 4 8 16 -1.</_>
                <_>
                  18 12 8 8 2.</_></rects>
              <tilted>0</tilted></feature>
            <threshold>5.0145690329372883e-003</threshold>
            <left_val>-0.9531211256980896</left_val>
            <right_val>0.4878138899803162</right_val></_></_>
        <_>
          <!-- tree 30 -->
          <_>
            <!-- root node -->
            <feature>
              <rects>
                <_>
                  2 3 18 4 -1.</_>
                <_>
                  2 3 9 2 2.</_>
                <_>
                  11 5 9 2 2.</_></rects>
              <tilted>0</tilted></feature>
            <threshold>1.1247049551457167e-003</threshold>
            <left_val>-0.9846029281616211</left_val>
            <right_val>0.8438606858253479</right_val></_></_>
        <_>
          <!-- tree 31 -->
          <_>
            <!-- root node -->
            <feature>
              <rects>
                <_>
                  12 17 10 8 -1.</_>
                <_>
                  17 17 5 4 2.</_>
                <_>
                  12 21 5 4 2.</_></rects>
              <tilted>0</tilted></feature>
            <threshold>-4.3918797746300697e-003</threshold>
            <left_val>1.</left_val>
            <right_val>-0.9893332719802856</right_val></_></_>
        <_>
          <!-- tree 32 -->
          <_>
            <!-- root node -->
            <feature>
              <rects>
                <_>
                  3 1 9 18 -1.</_>
                <_>
                  3 10 9 9 2.</_></rects>
              <tilted>0</tilted></feature>
            <threshold>3.6640340113081038e-004</threshold>
            <left_val>-0.9987112879753113</left_val>
            <right_val>0.8242903947830200</right_val></_></_>
        <_>
          <!-- tree 33 -->
          <_>
            <!-- root node -->
            <feature>
              <rects>
                <_>
                  10 4 14 3 -1.</_>
                <_>
                  10 5 14 1 3.</_></rects>
              <tilted>0</tilted></feature>
            <threshold>-3.0237951432354748e-004</threshold>
            <left_val>0.1433108001947403</left_val>
            <right_val>-0.9967020750045776</right_val></_></_>
        <_>
          <!-- tree 34 -->
          <_>
            <!-- root node -->
            <feature>
              <rects>
                <_>
                  2 1 24 11 -1.</_>
                <_>
                  10 1 8 11 3.</_></rects>
              <tilted>0</tilted></feature>
            <threshold>6.9954991340637207e-004</threshold>
            <left_val>-0.9910699725151062</left_val>
            <right_val>0.7075526118278503</right_val></_></_>
        <_>
          <!-- tree 35 -->
          <_>
            <!-- root node -->
            <feature>
              <rects>
                <_>
                  17 13 2 6 -1.</_>
                <_>
                  18 13 1 3 2.</_>
                <_>
                  17 16 1 3 2.</_></rects>
              <tilted>0</tilted></feature>
            <threshold>8.2467129686847329e-005</threshold>
            <left_val>-0.9908556938171387</left_val>
            <right_val>0.2863504886627197</right_val></_></_>
        <_>
          <!-- tree 36 -->
          <_>
            <!-- root node -->
            <feature>
              <rects>
                <_>
                  1 0 14 10 -1.</_>
                <_>
                  1 0 7 5 2.</_>
                <_>
                  8 5 7 5 2.</_></rects>
              <tilted>0</tilted></feature>
            <threshold>-2.4147389922291040e-004</threshold>
            <left_val>0.9279515743255615</left_val>
            <right_val>-0.9963905215263367</right_val></_></_>
        <_>
          <!-- tree 37 -->
          <_>
            <!-- root node -->
            <feature>
              <rects>
                <_>
                  23 15 2 4 -1.</_>
                <_>
                  23 15 1 4 2.</_></rects>
              <tilted>0</tilted></feature>
            <threshold>-2.9937220460851677e-005</threshold>
            <left_val>0.7565286159515381</left_val>
            <right_val>-0.9503905177116394</right_val></_></_>
        <_>
          <!-- tree 38 -->
          <_>
            <!-- root node -->
            <feature>
              <rects>
                <_>
                  4 4 24 12 -1.</_>
                <_>
                  4 10 24 6 2.</_></rects>
              <tilted>0</tilted></feature>
            <threshold>0.0134853404015303</threshold>
            <left_val>-0.9962559938430786</left_val>
            <right_val>0.6759890913963318</right_val></_></_>
        <_>
          <!-- tree 39 -->
          <_>
            <!-- root node -->
            <feature>
              <rects>
                <_>
                  16 4 1 16 -1.</_>
                <_>
                  16 12 1 8 2.</_></rects>
              <tilted>0</tilted></feature>
            <threshold>-8.5455831140279770e-004</threshold>
            <left_val>0.7999637722969055</left_val>
            <right_val>-0.9554411768913269</right_val></_></_>
        <_>
          <!-- tree 40 -->
          <_>
            <!-- root node -->
            <feature>
              <rects>
                <_>
                  4 13 8 8 -1.</_>
                <_>
                  4 17 8 4 2.</_></rects>
              <tilted>0</tilted></feature>
            <threshold>-2.3816220345906913e-004</threshold>
            <left_val>0.6487590074539185</left_val>
            <right_val>-0.9747077822685242</right_val></_></_>
        <_>
          <!-- tree 41 -->
          <_>
            <!-- root node -->
            <feature>
              <rects>
                <_>
                  16 1 16 2 -1.</_>
                <_>
                  24 1 8 1 2.</_>
                <_>
                  16 2 8 1 2.</_></rects>
              <tilted>0</tilted></feature>
            <threshold>-1.6393250552937388e-004</threshold>
            <left_val>0.6118987202644348</left_val>
            <right_val>-0.8244224786758423</right_val></_></_></trees>
      <stage_threshold>-1.6512559652328491</stage_threshold>
      <parent>4</parent>
      <next>-1</next></_>
    <_>
      <!-- stage 6 -->
      <trees>
        <_>
          <!-- tree 0 -->
          <_>
            <!-- root node -->
            <feature>
              <rects>
                <_>
                  7 5 18 4 -1.</_>
                <_>
                  13 5 6 4 3.</_></rects>
              <tilted>0</tilted></feature>
            <threshold>0.0280300397425890</threshold>
            <left_val>-0.6136913895606995</left_val>
            <right_val>0.4819597899913788</right_val></_></_>
        <_>
          <!-- tree 1 -->
          <_>
            <!-- root node -->
            <feature>
              <rects>
                <_>
                  20 0 12 1 -1.</_>
                <_>
                  20 0 6 1 2.</_></rects>
              <tilted>0</tilted></feature>
            <threshold>2.5554450694471598e-003</threshold>
            <left_val>-0.3828893005847931</left_val>
            <right_val>0.3074418008327484</right_val></_></_>
        <_>
          <!-- tree 2 -->
          <_>
            <!-- root node -->
            <feature>
              <rects>
                <_>
                  0 30 22 2 -1.</_>
                <_>
                  11 30 11 2 2.</_></rects>
              <tilted>0</tilted></feature>
            <threshold>0.0159521605819464</threshold>
            <left_val>-0.4244663119316101</left_val>
            <right_val>0.4895105063915253</right_val></_></_>
        <_>
          <!-- tree 3 -->
          <_>
            <!-- root node -->
            <feature>
              <rects>
                <_>
                  12 18 9 2 -1.</_>
                <_>
                  12 19 9 1 2.</_></rects>
              <tilted>0</tilted></feature>
            <threshold>1.1987569741904736e-003</threshold>
            <left_val>-0.3761101067066193</left_val>
            <right_val>0.6246026754379273</right_val></_></_>
        <_>
          <!-- tree 4 -->
          <_>
            <!-- root node -->
            <feature>
              <rects>
                <_>
                  12 0 5 6 -1.</_>
                <_>
                  12 3 5 3 2.</_></rects>
              <tilted>0</tilted></feature>
            <threshold>-1.4942180132493377e-003</threshold>
            <left_val>0.2740392982959747</left_val>
            <right_val>-0.7713037729263306</right_val></_></_>
        <_>
          <!-- tree 5 -->
          <_>
            <!-- root node -->
            <feature>
              <rects>
                <_>
                  20 12 12 5 -1.</_>
                <_>
                  24 12 4 5 3.</_></rects>
              <tilted>0</tilted></feature>
            <threshold>3.2230729702860117e-003</threshold>
            <left_val>-0.4510475993156433</left_val>
            <right_val>0.2856932878494263</right_val></_></_>
        <_>
          <!-- tree 6 -->
          <_>
            <!-- root node -->
            <feature>
              <rects>
                <_>
                  0 12 12 5 -1.</_>
                <_>
                  4 12 4 5 3.</_></rects>
              <tilted>0</tilted></feature>
            <threshold>1.9040909828618169e-003</threshold>
            <left_val>-0.6512855291366577</left_val>
            <right_val>0.3085102140903473</right_val></_></_>
        <_>
          <!-- tree 7 -->
          <_>
            <!-- root node -->
            <feature>
              <rects>
                <_>
                  2 7 29 9 -1.</_>
                <_>
                  2 10 29 3 3.</_></rects>
              <tilted>0</tilted></feature>
            <threshold>0.0219301506876946</threshold>
            <left_val>-0.7946367263793945</left_val>
            <right_val>0.2353460043668747</right_val></_></_>
        <_>
          <!-- tree 8 -->
          <_>
            <!-- root node -->
            <feature>
              <rects>
                <_>
                  4 3 24 18 -1.</_>
                <_>
                  4 12 24 9 2.</_></rects>
              <tilted>0</tilted></feature>
            <threshold>6.5738207194954157e-004</threshold>
            <left_val>-0.9066135287284851</left_val>
            <right_val>0.1386103034019470</right_val></_></_>
        <_>
          <!-- tree 9 -->
          <_>
            <!-- root node -->
            <feature>
              <rects>
                <_>
                  14 1 4 26 -1.</_>
                <_>
                  14 14 4 13 2.</_></rects>
              <tilted>0</tilted></feature>
            <threshold>-1.0278370464220643e-003</threshold>
            <left_val>0.1916463971138001</left_val>
            <right_val>-0.8074253201484680</right_val></_></_>
        <_>
          <!-- tree 10 -->
          <_>
            <!-- root node -->
            <feature>
              <rects>
                <_>
                  0 0 10 8 -1.</_>
                <_>
                  0 0 5 4 2.</_>
                <_>
                  5 4 5 4 2.</_></rects>
              <tilted>0</tilted></feature>
            <threshold>-1.8034169916063547e-003</threshold>
            <left_val>0.2698974013328552</left_val>
            <right_val>-0.5999308228492737</right_val></_></_>
        <_>
          <!-- tree 11 -->
          <_>
            <!-- root node -->
            <feature>
              <rects>
                <_>
                  14 7 9 10 -1.</_>
                <_>
                  17 7 3 10 3.</_></rects>
              <tilted>0</tilted></feature>
            <threshold>0.0201809909194708</threshold>
            <left_val>-0.2501288056373596</left_val>
            <right_val>0.5238568186759949</right_val></_></_>
        <_>
          <!-- tree 12 -->
          <_>
            <!-- root node -->
            <feature>
              <rects>
                <_>
                  8 3 2 21 -1.</_>
                <_>
                  8 10 2 7 3.</_></rects>
              <tilted>0</tilted></feature>
            <threshold>1.5903089661151171e-003</threshold>
            <left_val>-0.9030355215072632</left_val>
            <right_val>0.1748763024806976</right_val></_></_>
        <_>
          <!-- tree 13 -->
          <_>
            <!-- root node -->
            <feature>
              <rects>
                <_>
                  1 4 30 18 -1.</_>
                <_>
                  1 10 30 6 3.</_></rects>
              <tilted>0</tilted></feature>
            <threshold>0.0403049401938915</threshold>
            <left_val>-0.9902657866477966</left_val>
            <right_val>0.0285737495869398</right_val></_></_>
        <_>
          <!-- tree 14 -->
          <_>
            <!-- root node -->
            <feature>
              <rects>
                <_>
                  0 2 30 30 -1.</_>
                <_>
                  0 12 30 10 3.</_></rects>
              <tilted>0</tilted></feature>
            <threshold>9.0972789621446282e-005</threshold>
            <left_val>-0.9368113279342651</left_val>
            <right_val>0.0343127213418484</right_val></_></_>
        <_>
          <!-- tree 15 -->
          <_>
            <!-- root node -->
            <feature>
              <rects>
                <_>
                  1 1 31 27 -1.</_>
                <_>
                  1 10 31 9 3.</_></rects>
              <tilted>0</tilted></feature>
            <threshold>1.5300089726224542e-003</threshold>
            <left_val>-0.9914134740829468</left_val>
            <right_val>0.0194132104516029</right_val></_></_>
        <_>
          <!-- tree 16 -->
          <_>
            <!-- root node -->
            <feature>
              <rects>
                <_>
                  0 3 32 21 -1.</_>
                <_>
                  0 10 32 7 3.</_></rects>
              <tilted>0</tilted></feature>
            <threshold>0.0264117792248726</threshold>
            <left_val>-1.</left_val>
            <right_val>3.6849780008196831e-003</right_val></_></_>
        <_>
          <!-- tree 17 -->
          <_>
            <!-- root node -->
            <feature>
              <rects>
                <_>
                  6 4 20 18 -1.</_>
                <_>
                  6 10 20 6 3.</_></rects>
              <tilted>0</tilted></feature>
            <threshold>8.0631123855710030e-003</threshold>
            <left_val>-0.9970638751983643</left_val>
            <right_val>1.6126360278576612e-003</right_val></_></_>
        <_>
          <!-- tree 18 -->
          <_>
            <!-- root node -->
            <feature>
              <rects>
                <_>
                  0 3 27 21 -1.</_>
                <_>
                  0 10 27 7 3.</_></rects>
              <tilted>0</tilted></feature>
            <threshold>0.0238439608365297</threshold>
            <left_val>-0.9978073835372925</left_val>
            <right_val>1.9897420424968004e-003</right_val></_></_>
        <_>
          <!-- tree 19 -->
          <_>
            <!-- root node -->
            <feature>
              <rects>
                <_>
                  0 3 32 21 -1.</_>
                <_>
                  0 10 32 7 3.</_></rects>
              <tilted>0</tilted></feature>
            <threshold>0.0264117792248726</threshold>
            <left_val>-1.</left_val>
            <right_val>7.3404732393100858e-004</right_val></_></_>
        <_>
          <!-- tree 20 -->
          <_>
            <!-- root node -->
            <feature>
              <rects>
                <_>
                  0 3 25 21 -1.</_>
                <_>
                  0 10 25 7 3.</_></rects>
              <tilted>0</tilted></feature>
            <threshold>5.0293761305510998e-003</threshold>
            <left_val>-1.</left_val>
            <right_val>1.1446730241004843e-005</right_val></_></_>
        <_>
          <!-- tree 21 -->
          <_>
            <!-- root node -->
            <feature>
              <rects>
                <_>
                  4 3 24 21 -1.</_>
                <_>
                  4 10 24 7 3.</_></rects>
              <tilted>0</tilted></feature>
            <threshold>2.7004219591617584e-003</threshold>
            <left_val>-1.</left_val>
            <right_val>-2.3104280444385950e-006</right_val></_></_>
        <_>
          <!-- tree 22 -->
          <_>
            <!-- root node -->
            <feature>
              <rects>
                <_>
                  4 3 24 21 -1.</_>
                <_>
                  4 10 24 7 3.</_></rects>
              <tilted>0</tilted></feature>
            <threshold>2.7004219591617584e-003</threshold>
            <left_val>-1.</left_val>
            <right_val>4.3239469960099086e-006</right_val></_></_>
        <_>
          <!-- tree 23 -->
          <_>
            <!-- root node -->
            <feature>
              <rects>
                <_>
                  7 3 23 21 -1.</_>
                <_>
                  7 10 23 7 3.</_></rects>
              <tilted>0</tilted></feature>
            <threshold>0.0138614997267723</threshold>
            <left_val>-0.9975563287734985</left_val>
            <right_val>2.7335500344634056e-003</right_val></_></_>
        <_>
          <!-- tree 24 -->
          <_>
            <!-- root node -->
            <feature>
              <rects>
                <_>
                  0 3 25 21 -1.</_>
                <_>
                  0 10 25 7 3.</_></rects>
              <tilted>0</tilted></feature>
            <threshold>5.0293761305510998e-003</threshold>
            <left_val>-1.</left_val>
            <right_val>1.3376139395404607e-004</right_val></_></_>
        <_>
          <!-- tree 25 -->
          <_>
            <!-- root node -->
            <feature>
              <rects>
                <_>
                  2 3 28 21 -1.</_>
                <_>
                  2 10 28 7 3.</_></rects>
              <tilted>0</tilted></feature>
            <threshold>0.0125624304637313</threshold>
            <left_val>-1.</left_val>
            <right_val>-2.0485219920374220e-006</right_val></_></_>
        <_>
          <!-- tree 26 -->
          <_>
            <!-- root node -->
            <feature>
              <rects>
                <_>
                  0 3 25 21 -1.</_>
                <_>
                  0 10 25 7 3.</_></rects>
              <tilted>0</tilted></feature>
            <threshold>5.0293761305510998e-003</threshold>
            <left_val>-1.</left_val>
            <right_val>2.8000420115859015e-006</right_val></_></_>
        <_>
          <!-- tree 27 -->
          <_>
            <!-- root node -->
            <feature>
              <rects>
                <_>
                  4 3 24 21 -1.</_>
                <_>
                  4 10 24 7 3.</_></rects>
              <tilted>0</tilted></feature>
            <threshold>2.7004219591617584e-003</threshold>
            <left_val>-1.</left_val>
            <right_val>-2.6025199986179359e-006</right_val></_></_>
        <_>
          <!-- tree 28 -->
          <_>
            <!-- root node -->
            <feature>
              <rects>
                <_>
                  0 3 32 21 -1.</_>
                <_>
                  0 10 32 7 3.</_></rects>
              <tilted>0</tilted></feature>
            <threshold>0.0137531002983451</threshold>
            <left_val>-1.</left_val>
            <right_val>2.2126901058072690e-006</right_val></_></_>
        <_>
          <!-- tree 29 -->
          <_>
            <!-- root node -->
            <feature>
              <rects>
                <_>
                  4 3 24 21 -1.</_>
                <_>
                  4 10 24 7 3.</_></rects>
              <tilted>0</tilted></feature>
            <threshold>2.7004219591617584e-003</threshold>
            <left_val>-1.</left_val>
            <right_val>-3.2221560104517266e-006</right_val></_></_>
        <_>
          <!-- tree 30 -->
          <_>
            <!-- root node -->
            <feature>
              <rects>
                <_>
                  3 3 26 21 -1.</_>
                <_>
                  3 10 26 7 3.</_></rects>
              <tilted>0</tilted></feature>
            <threshold>0.0109570100903511</threshold>
            <left_val>-1.</left_val>
            <right_val>1.2109270528526395e-006</right_val></_></_>
        <_>
          <!-- tree 31 -->
          <_>
            <!-- root node -->
            <feature>
              <rects>
                <_>
                  3 3 26 21 -1.</_>
                <_>
                  3 10 26 7 3.</_></rects>
              <tilted>0</tilted></feature>
            <threshold>0.0109570100903511</threshold>
            <left_val>-1.</left_val>
            <right_val>-1.0098930260937777e-006</right_val></_></_>
        <_>
          <!-- tree 32 -->
          <_>
            <!-- root node -->
            <feature>
              <rects>
                <_>
                  4 3 24 21 -1.</_>
                <_>
                  4 10 24 7 3.</_></rects>
              <tilted>0</tilted></feature>
            <threshold>2.7004219591617584e-003</threshold>
            <left_val>-1.</left_val>
            <right_val>1.0197629762842553e-006</right_val></_></_>
        <_>
          <!-- tree 33 -->
          <_>
            <!-- root node -->
            <feature>
              <rects>
                <_>
                  7 3 25 21 -1.</_>
                <_>
                  7 10 25 7 3.</_></rects>
              <tilted>0</tilted></feature>
            <threshold>0.0274132508784533</threshold>
            <left_val>-0.9894207119941711</left_val>
            <right_val>1.4052420156076550e-003</right_val></_></_>
        <_>
          <!-- tree 34 -->
          <_>
            <!-- root node -->
            <feature>
              <rects>
                <_>
                  2 3 23 21 -1.</_>
                <_>
                  2 10 23 7 3.</_></rects>
              <tilted>0</tilted></feature>
            <threshold>8.3089922554790974e-004</threshold>
            <left_val>-1.</left_val>
            <right_val>4.0167500264942646e-003</right_val></_></_>
        <_>
          <!-- tree 35 -->
          <_>
            <!-- root node -->
            <feature>
              <rects>
                <_>
                  1 3 30 21 -1.</_>
                <_>
                  1 10 30 7 3.</_></rects>
              <tilted>0</tilted></feature>
            <threshold>0.0140695497393608</threshold>
            <left_val>-1.</left_val>
            <right_val>-1.9365739717613906e-004</right_val></_></_>
        <_>
          <!-- tree 36 -->
          <_>
            <!-- root node -->
            <feature>
              <rects>
                <_>
                  3 3 26 21 -1.</_>
                <_>
                  3 10 26 7 3.</_></rects>
              <tilted>0</tilted></feature>
            <threshold>0.0109570100903511</threshold>
            <left_val>-1.</left_val>
            <right_val>-6.7063507458442473e-007</right_val></_></_>
        <_>
          <!-- tree 37 -->
          <_>
            <!-- root node -->
            <feature>
              <rects>
                <_>
                  4 3 24 21 -1.</_>
                <_>
                  4 10 24 7 3.</_></rects>
              <tilted>0</tilted></feature>
            <threshold>2.7004219591617584e-003</threshold>
            <left_val>-1.</left_val>
            <right_val>4.9737232075131033e-006</right_val></_></_>
        <_>
          <!-- tree 38 -->
          <_>
            <!-- root node -->
            <feature>
              <rects>
                <_>
                  1 3 30 21 -1.</_>
                <_>
                  1 10 30 7 3.</_></rects>
              <tilted>0</tilted></feature>
            <threshold>0.0140695497393608</threshold>
            <left_val>-1.</left_val>
            <right_val>-4.9174418563779909e-006</right_val></_></_>
        <_>
          <!-- tree 39 -->
          <_>
            <!-- root node -->
            <feature>
              <rects>
                <_>
                  3 3 26 21 -1.</_>
                <_>
                  3 10 26 7 3.</_></rects>
              <tilted>0</tilted></feature>
            <threshold>0.0109570100903511</threshold>
            <left_val>-1.</left_val>
            <right_val>4.9517720981384628e-006</right_val></_></_>
        <_>
          <!-- tree 40 -->
          <_>
            <!-- root node -->
            <feature>
              <rects>
                <_>
                  2 3 23 21 -1.</_>
                <_>
                  2 10 23 7 3.</_></rects>
              <tilted>0</tilted></feature>
            <threshold>8.3089922554790974e-004</threshold>
            <left_val>-1.</left_val>
            <right_val>-5.3348321671364829e-006</right_val></_></_>
        <_>
          <!-- tree 41 -->
          <_>
            <!-- root node -->
            <feature>
              <rects>
                <_>
                  7 3 23 21 -1.</_>
                <_>
                  7 10 23 7 3.</_></rects>
              <tilted>0</tilted></feature>
            <threshold>5.9076788602396846e-004</threshold>
            <left_val>-0.9828069806098938</left_val>
            <right_val>-2.7976280543953180e-003</right_val></_></_>
        <_>
          <!-- tree 42 -->
          <_>
            <!-- root node -->
            <feature>
              <rects>
                <_>
                  0 3 25 21 -1.</_>
                <_>
                  0 10 25 7 3.</_></rects>
              <tilted>0</tilted></feature>
            <threshold>5.0293761305510998e-003</threshold>
            <left_val>-1.</left_val>
            <right_val>8.1997718662023544e-003</right_val></_></_>
        <_>
          <!-- tree 43 -->
          <_>
            <!-- root node -->
            <feature>
              <rects>
                <_>
                  7 3 25 21 -1.</_>
                <_>
                  7 10 25 7 3.</_></rects>
              <tilted>0</tilted></feature>
            <threshold>2.4281980004161596e-003</threshold>
            <left_val>-0.9530497789382935</left_val>
            <right_val>-0.0178381707519293</right_val></_></_>
        <_>
          <!-- tree 44 -->
          <_>
            <!-- root node -->
            <feature>
              <rects>
                <_>
                  3 3 26 21 -1.</_>
                <_>
                  3 10 26 7 3.</_></rects>
              <tilted>0</tilted></feature>
            <threshold>0.0109570100903511</threshold>
            <left_val>-1.</left_val>
            <right_val>0.0310549195855856</right_val></_></_>
        <_>
          <!-- tree 45 -->
          <_>
            <!-- root node -->
            <feature>
              <rects>
                <_>
                  4 3 24 21 -1.</_>
                <_>
                  4 10 24 7 3.</_></rects>
              <tilted>0</tilted></feature>
            <threshold>2.7004219591617584e-003</threshold>
            <left_val>-1.</left_val>
            <right_val>-8.5837338119745255e-003</right_val></_></_>
        <_>
          <!-- tree 46 -->
          <_>
            <!-- root node -->
            <feature>
              <rects>
                <_>
                  4 3 24 21 -1.</_>
                <_>
                  4 10 24 7 3.</_></rects>
              <tilted>0</tilted></feature>
            <threshold>2.7004219591617584e-003</threshold>
            <left_val>-1.</left_val>
            <right_val>4.3407329940237105e-004</right_val></_></_>
        <_>
          <!-- tree 47 -->
          <_>
            <!-- root node -->
            <feature>
              <rects>
                <_>
                  7 3 23 21 -1.</_>
                <_>
                  7 10 23 7 3.</_></rects>
              <tilted>0</tilted></feature>
            <threshold>5.9076788602396846e-004</threshold>
            <left_val>-0.8908867835998535</left_val>
            <right_val>-0.0207755900919437</right_val></_></_>
        <_>
          <!-- tree 48 -->
          <_>
            <!-- root node -->
            <feature>
              <rects>
                <_>
                  0 3 25 21 -1.</_>
                <_>
                  0 10 25 7 3.</_></rects>
              <tilted>0</tilted></feature>
            <threshold>5.0293761305510998e-003</threshold>
            <left_val>-1.</left_val>
            <right_val>0.0484466701745987</right_val></_></_>
        <_>
          <!-- tree 49 -->
          <_>
            <!-- root node -->
            <feature>
              <rects>
                <_>
                  13 7 6 11 -1.</_>
                <_>
                  15 7 2 11 3.</_></rects>
              <tilted>0</tilted></feature>
            <threshold>0.0154967801645398</threshold>
            <left_val>-0.4765130877494812</left_val>
            <right_val>0.6590620875358582</right_val></_></_>
        <_>
          <!-- tree 50 -->
          <_>
            <!-- root node -->
            <feature>
              <rects>
                <_>
                  0 3 32 21 -1.</_>
                <_>
                  0 10 32 7 3.</_></rects>
              <tilted>0</tilted></feature>
            <threshold>0.0264117792248726</threshold>
            <left_val>-1.</left_val>
            <right_val>0.2325433939695358</right_val></_></_>
        <_>
          <!-- tree 51 -->
          <_>
            <!-- root node -->
            <feature>
              <rects>
                <_>
                  3 3 26 21 -1.</_>
                <_>
                  3 10 26 7 3.</_></rects>
              <tilted>0</tilted></feature>
            <threshold>0.0109570100903511</threshold>
            <left_val>-1.</left_val>
            <right_val>-0.0315849594771862</right_val></_></_>
        <_>
          <!-- tree 52 -->
          <_>
            <!-- root node -->
            <feature>
              <rects>
                <_>
                  0 3 25 21 -1.</_>
                <_>
                  0 10 25 7 3.</_></rects>
              <tilted>0</tilted></feature>
            <threshold>5.0293761305510998e-003</threshold>
            <left_val>-1.</left_val>
            <right_val>3.9010050240904093e-003</right_val></_></_>
        <_>
          <!-- tree 53 -->
          <_>
            <!-- root node -->
            <feature>
              <rects>
                <_>
                  7 3 25 21 -1.</_>
                <_>
                  7 10 25 7 3.</_></rects>
              <tilted>0</tilted></feature>
            <threshold>2.4281980004161596e-003</threshold>
            <left_val>-0.9517843723297119</left_val>
            <right_val>-0.0241465792059898</right_val></_></_>
        <_>
          <!-- tree 54 -->
          <_>
            <!-- root node -->
            <feature>
              <rects>
                <_>
                  4 3 24 21 -1.</_>
                <_>
                  4 10 24 7 3.</_></rects>
              <tilted>0</tilted></feature>
            <threshold>2.7004219591617584e-003</threshold>
            <left_val>-1.</left_val>
            <right_val>0.0632005035877228</right_val></_></_>
        <_>
          <!-- tree 55 -->
          <_>
            <!-- root node -->
            <feature>
              <rects>
                <_>
                  4 3 24 21 -1.</_>
                <_>
                  4 10 24 7 3.</_></rects>
              <tilted>0</tilted></feature>
            <threshold>2.7004219591617584e-003</threshold>
            <left_val>-1.</left_val>
            <right_val>-9.8338117823004723e-003</right_val></_></_>
        <_>
          <!-- tree 56 -->
          <_>
            <!-- root node -->
            <feature>
              <rects>
                <_>
                  3 3 26 21 -1.</_>
                <_>
                  3 10 26 7 3.</_></rects>
              <tilted>0</tilted></feature>
            <threshold>0.0109570100903511</threshold>
            <left_val>-1.</left_val>
            <right_val>4.7050061402842402e-004</right_val></_></_>
        <_>
          <!-- tree 57 -->
          <_>
            <!-- root node -->
            <feature>
              <rects>
                <_>
                  7 3 23 21 -1.</_>
                <_>
                  7 10 23 7 3.</_></rects>
              <tilted>0</tilted></feature>
            <threshold>5.9076788602396846e-004</threshold>
            <left_val>-0.8954190015792847</left_val>
            <right_val>-0.0548442713916302</right_val></_></_>
        <_>
          <!-- tree 58 -->
          <_>
            <!-- root node -->
            <feature>
              <rects>
                <_>
                  3 3 26 21 -1.</_>
                <_>
                  3 10 26 7 3.</_></rects>
              <tilted>0</tilted></feature>
